{"layerSizes":[10,40,1],"weights":{"0":{"11":0.4960318311242742,"12":-0.058322516642726425,"13":-0.24300648277438403,"14":0.42940364586877383,"15":-0.195723278542478,"16":0.4636676057200978,"17":0.21474425220305138,"18":0.4969221220609572,"19":-0.7138306786785836,"20":-0.04018493415780283,"21":0.7745933339534653,"22":-0.3148748716324119,"23":-0.2862804690845082,"24":-0.050332786769043465,"25":0.15626094485630282,"26":0.06024741697766585,"27":-0.42457247943005916,"28":0.3346204330500736,"29":0.651470574193936,"30":0.0390628921534555,"31":-0.4131479158039398,"32":0.2289344858976063,"33":0.3627767753613716,"34":0.06557775696941927,"35":0.12830842484707372,"36":0.2403061231673122,"37":0.38550189756318864,"38":0.8641652490855992,"39":-0.9613781479307816,"40":0.5171220541884023,"41":0.5277141272279945,"42":0.2720035840823357,"43":0.4454267552157464,"44":0.37801259041310326,"45":0.06281683830357924,"46":0.01108784181055313,"47":0.02378053925276726,"48":0.401282629182051,"49":0.3763161671329175,"50":0.21631953923427788},"1":{"11":0.5190766325054271,"12":0.00918499695126783,"13":-0.25892717904664836,"14":0.49146705338768826,"15":-0.28578421430889084,"16":0.4108379812448627,"17":0.23492967055829905,"18":0.45107311289207896,"19":-0.6049032809293474,"20":-0.0049893120646376,"21":0.8477838448514073,"22":-0.2924045556586485,"23":-0.2026058142181309,"24":0.07811912948529694,"25":0.1926709384960401,"26":-0.0023830563809723107,"27":-0.5172963907634996,"28":0.5261570988180511,"29":0.5820393923729894,"30":-0.037491878916797894,"31":-0.39443277120373993,"32":0.05025525028382456,"33":0.5086391219079074,"34":0.06622905376608827,"35":0.2088549068370904,"36":0.163973370554591,"37":0.38194620794436734,"38":0.88942915424221,"39":-0.8741602317592619,"40":0.5742960974664116,"41":0.48565808809125643,"42":0.24436157044473322,"43":0.46327025898662677,"44":0.4360239958887109,"45":-0.09898604531851402,"46":0.08038151832165714,"47":0.2805734999965098,"48":0.335894320301002,"49":0.4139192051250825,"50":0.21983602454933976},"2":{"11":0.26647540028472755,"12":0.19249285717414022,"13":-0.02073700648568462,"14":0.04192230975851703,"15":-0.0653317529538225,"16":0.36707412363040726,"17":0.8357707794280543,"18":0.4018945379250139,"19":-0.21220235604018384,"20":0.20251378918057472,"21":0.38073584178930214,"22":-1.6426105265402424,"23":-0.1544947609383267,"24":-1.5936461884579536,"25":-0.05562712101693604,"26":-0.6663740458274561,"27":-0.15525220798197673,"28":0.23545143032117744,"29":0.5591877308122802,"30":0.25289844567210323,"31":-0.019806891689104777,"32":0.7328314809222196,"33":0.2810493826736111,"34":-0.6407659345523476,"35":-0.31574965564193974,"36":-0.4160870256984109,"37":0.2580132404504893,"38":0.2541039874767057,"39":-0.18902538392462362,"40":0.3743424477921775,"41":0.18376350247251166,"42":0.08518776934635883,"43":0.24495025268611603,"44":0.33017896942059566,"45":-0.6680052295877889,"46":-0.1319811796081805,"47":-0.9863545565982924,"48":0.17673821767518166,"49":0.2595785537199154,"50":0.035869604429597926},"3":{"11":-0.6525009638062332,"12":0.21837279937566356,"13":1.4769240573401905,"14":-0.273977113778406,"15":0.5345790744315019,"16":0.42356368161072866,"17":1.6108094578423566,"18":-0.0822542260129197,"19":0.7950432006453523,"20":0.33958528762730333,"21":-0.2257299715864719,"22":-1.4788584951021595,"23":0.006803508066767695,"24":-1.5002128871256095,"25":0.41008013785884023,"26":-1.5673396165339144,"27":0.5547254617221296,"28":-0.650866734621036,"29":0.29482218531239324,"30":0.43575809185502756,"31":0.4062014290190894,"32":1.417436156726827,"33":0.2578708567797959,"34":-1.5930175463626466,"35":-0.6213238939086252,"36":-1.002630803988298,"37":0.36053541065921413,"38":-0.09703145796763743,"39":0.5737543977677925,"40":-0.14068006065789102,"41":-0.39291267924536977,"42":-0.21613331543986614,"43":0.21952915182496752,"44":-0.32512681195612664,"45":-1.5640762443024403,"46":-0.26504466284258055,"47":-0.06611543246042076,"48":-1.4705703932198493,"49":-0.6012100231073869,"50":-0.12646504771913852},"4":{"11":-0.7264291824045724,"12":0.04872854137728273,"13":1.5107676497469045,"14":-0.4081023447482706,"15":0.5334798151019257,"16":0.3981468436924644,"17":1.5055319698487069,"18":-0.17000180843731572,"19":0.725620769158918,"20":0.43150331798120756,"21":-0.1623859760437371,"22":-1.6142115176976994,"23":0.40149255331878386,"24":-1.4873522708237061,"25":0.4314328501488696,"26":-1.558146456663958,"27":0.4977591553491547,"28":-0.7187523582941714,"29":0.3681319077368366,"30":0.48189545377099385,"31":1.349711862433538,"32":1.3869882380033345,"33":-0.006142634267579751,"34":-1.5199731595131778,"35":-0.5484310257005913,"36":-0.8968864732245657,"37":0.3650002565507322,"38":-0.14858929970159737,"39":0.7749875983212599,"40":-0.040411550669873515,"41":-0.3289807412426353,"42":0.26322510147016015,"43":0.22623613645231844,"44":-0.3804645562418553,"45":-1.4750265942957042,"46":-0.35631604072683754,"47":-0.03411642772389293,"48":-1.646396868908314,"49":-0.6546877293605833,"50":-0.114071157771994},"5":{"11":-0.6716687356547891,"12":0.0772270285107929,"13":0.4405233896779098,"14":-0.34967086035179085,"15":0.4047790081943493,"16":0.4006817232880254,"17":1.6414549429625562,"18":-0.08086713407992122,"19":0.6524724373953477,"20":0.3125080097534404,"21":-0.1400545638538153,"22":-1.6396415926901786,"23":0.07128179454511258,"24":-1.610546966060906,"25":0.35770020966664307,"26":-1.5773091362268645,"27":0.568867968409361,"28":-0.6575980809709212,"29":0.410043843608854,"30":0.4350494076123814,"31":0.3677295762028675,"32":1.2787648586637084,"33":0.2271944859291975,"34":-1.5107152513960338,"35":-0.6610878242891771,"36":-0.003894913614795305,"37":-0.5886373472560615,"38":-0.1609147391148683,"39":0.5791272626008623,"40":-0.07098559291672249,"41":-0.3714273619855616,"42":-0.2560370729174738,"43":0.2606355446012838,"44":-0.4378832157749486,"45":-0.3460274797263435,"46":-0.3438748638921796,"47":-0.058080529343376465,"48":-1.6028501333228815,"49":-0.6118906653386522,"50":-0.05093637807456417},"6":{"11":-0.667857371163336,"12":0.16618870485449727,"13":1.542049671877126,"14":-0.2751337638135884,"15":0.5628804379190638,"16":0.4223318970325873,"17":1.498177348243063,"18":-0.09071364934199622,"19":0.6946491018062765,"20":0.40897512710722417,"21":-0.05564586082601994,"22":-1.4546988709665218,"23":0.14310542777370713,"24":-1.5747893611004404,"25":0.29827792320576235,"26":-1.6345682349617068,"27":0.49156009841534853,"28":-0.6849885652389978,"29":0.35827515742577865,"30":0.505973606458516,"31":0.4401226663487995,"32":1.2711112448817254,"33":0.20927156632541882,"34":-1.5026947158856945,"35":-0.5379095681995157,"36":-1.0023981695708444,"37":0.1778044355419633,"38":-0.05492676197539573,"39":0.6405148767450626,"40":0.17293068170086046,"41":-0.28477650876666566,"42":-0.205184542362009,"43":0.21297926865230815,"44":-0.29333313022961605,"45":-1.450579145752283,"46":-0.3478643836036942,"47":-0.0492031248044261,"48":-1.4522408099314243,"49":-0.6554164591112274,"50":-0.01668454208756496},"7":{"11":-0.12549391767257428,"12":0.16391546339010232,"13":0.5142349134448971,"14":-0.29942458485238327,"15":0.5011936842632911,"16":0.25460750867571713,"17":1.5401589684651191,"18":0.04626889691989049,"19":0.6187642429948554,"20":0.3920806119036213,"21":-0.04469604326987989,"22":-1.4805814909715724,"23":0.0724264115199226,"24":-1.5097566750489722,"25":0.28597783579033403,"26":-1.5698046375289803,"27":0.5072517572242602,"28":-0.6544029133110252,"29":0.24542766727756973,"30":0.5219404022675881,"31":0.4408682366470177,"32":1.4380989481304005,"33":0.20774409911888903,"34":-1.5732120633856812,"35":-0.6314667430729747,"36":-0.835866787475308,"37":0.3055968236912007,"38":-0.15963883033512932,"39":0.6812392929633794,"40":0.061490062821652286,"41":0.08603711090631795,"42":-0.21678706878612675,"43":0.24941837348038431,"44":-0.3529485781176246,"45":-1.6120363407765825,"46":-0.401977923058895,"47":-0.1714459665398016,"48":-1.5333525082476362,"49":-0.5894867644932452,"50":0.004278574587500708},"8":{"11":-1.451065441709197,"12":-0.42749392896792876,"13":1.6486770099829733,"14":-0.36842739907455235,"15":1.6414493713251705,"16":-1.5503028906062228,"17":1.5192986311539356,"18":-1.479824683893795,"19":0.6399549332804292,"20":1.377191764194055,"21":-0.5703717765631116,"22":-0.3675975041283364,"23":1.5826801761333222,"24":-0.31896065278203956,"25":-0.28991712009322024,"26":-1.5864558225408616,"27":0.6860108237482798,"28":-1.6159875573245368,"29":-1.5962337035191163,"30":1.60130950419987,"31":1.3312126749640676,"32":1.3243041701962253,"33":-1.6496761603299253,"34":-1.6326397667912655,"35":-0.653690609576271,"36":-0.12568755335896736,"37":-1.5913508459634758,"38":-0.5876591350898086,"39":0.6267440822226485,"40":-0.01579790286079056,"41":-1.6181151129277365,"42":0.1923451165119885,"43":-1.6198197369689753,"44":-1.6329964869982523,"45":-0.437465709260198,"46":0.22464158503135534,"47":-0.08266752670466393,"48":-1.6334194638224908,"49":-1.5498140987047715,"50":-0.016632367999173704},"9":{"11":-1.5412310347583595,"12":-0.288081420313893,"13":1.5063694595443673,"14":-0.4211682938390785,"15":1.502019466775901,"16":-1.5567653179312098,"17":1.6104860885766608,"18":-1.5322188618803896,"19":0.7494253358709185,"20":1.326370978700342,"21":-0.5181997068135465,"22":-0.4012503039269264,"23":1.6382506136960924,"24":-0.4463026905803852,"25":-0.39144584747234445,"26":-1.5726130322264138,"27":0.6558402576413858,"28":-1.6065666474515743,"29":-1.5987980845271808,"30":1.5829954946740343,"31":1.3876509435948448,"32":1.3578541300949647,"33":-1.588889108904989,"34":-1.5093122245335462,"35":-0.5068448332218125,"36":0.0008948898199611782,"37":-1.6030599718504692,"38":-0.5673247334326088,"39":0.7813959583652975,"40":-0.18606578564029758,"41":-1.6223928165300163,"42":0.14183827455431747,"43":-1.6084794524524577,"44":-1.5872383304899234,"45":-0.3427509317948132,"46":0.14404898292230156,"47":-0.07409829997674275,"48":-1.5565129871585963,"49":-1.6411094246105316,"50":-0.14711395636254676},"10":{"11":0.5129555047342711,"12":0.49426890796537637,"13":-0.18222781241455394,"14":0.40955573164841225,"15":-0.13352879081512675,"16":0.5191945393421142,"17":0.27246599949669875,"18":0.3693948646888573,"19":-0.6413462833424562,"20":-0.07678239213812951,"21":0.865581730858655,"22":-0.3853900523172642,"23":-0.11717870220984074,"24":-0.0152923856039991,"25":0.1478520495029424,"26":-0.04177671636966857,"27":-0.45214145688762697,"28":0.34300936624880773,"29":0.501667378582501,"30":0.09291016863018556,"31":-0.35437255795739125,"32":0.04294920627813194,"33":0.40991940361972845,"34":-0.02088799942403958,"35":0.13296766831019124,"36":0.24522965269797942,"37":0.38689973043960024,"38":0.9155346739222262,"39":-1.0151059723203857,"40":0.5527175770741052,"41":0.5307122744324853,"42":0.28035705261003224,"43":0.36752444836992787,"44":0.5071250460957453,"45":0.05714268297628662,"46":0.07155007147908439,"47":-0.05033597386711677,"48":0.4132898262604756,"49":0.4938900272167933,"50":0.0856129383975151},"11":{"52":0.30388188002812644},"12":{"52":0.10755248355928781},"13":{"52":-0.10786717999069578},"14":{"52":0.488188597191882},"15":{"52":-0.08994753333388988},"16":{"52":0.49510192752364},"17":{"52":-0.06373812843755},"18":{"52":0.14648825411075572},"19":{"52":-1.4073539027243986},"20":{"52":-0.019134001781433048},"21":{"52":0.41407148225134127},"22":{"52":0.39357669469590617},"23":{"52":-0.06454871902228393},"24":{"52":0.39804627729410935},"25":{"52":0.12136607197457658},"26":{"52":1.598026911891608},"27":{"52":-0.522435756241921},"28":{"52":1.588489550466635},"29":{"52":0.5310423217715652},"30":{"52":-0.08475045936468845},"31":{"52":-0.04209174908747821},"32":{"52":-0.020238532210595635},"33":{"52":0.1938518895113699},"34":{"52":1.5860880167079718},"35":{"52":1.380335110418977},"36":{"52":0.18119400612494754},"37":{"52":0.14269470274705587},"38":{"52":0.3832809897384522},"39":{"52":-1.3445343503911993},"40":{"52":0.24898881563986658},"41":{"52":0.5124650663028238},"42":{"52":-0.19391174138790224},"43":{"52":0.22775403379669323},"44":{"52":0.5168858758164644},"45":{"52":0.3814321025762334},"46":{"52":-0.4515055764682001},"47":{"52":0.1850949585408751},"48":{"52":1.5808954829363895},"49":{"52":1.569934771420535},"50":{"52":0.1876498373577014},"51":{"52":0.35585271648184624}}}